<?xml version="1.0" encoding="UTF-8"?>
<BIF VERSION="0.3"  xmlns="http://www.cs.ubc.ca/labs/lci/fopi/ve/XMLBIFv0_3"
	xmlns:xsi="http://www.w3.org/2001/XMLSchema-instance"
	xsi:schemaLocation="http://www.cs.ubc.ca/labs/lci/fopi/ve/XMLBIFv0_3 http://www.cs.ubc.ca/labs/lci/fopi/ve/XMLBIFv0_3/XMLBIFv0_3.xsd">
<NETWORK>
<NAME>Nuclear Power Station</NAME>
<PROPERTY>short = </PROPERTY>
<PROPERTY>detailed = </PROPERTY>

<VARIABLE TYPE="nature">
	<NAME>WaterLeak</NAME>
	<OUTCOME>T</OUTCOME>
	<OUTCOME>F</OUTCOME>
	<PROPERTY>position = (7307.1220703125, 5255.0771484375)</PROPERTY>
</VARIABLE>

<VARIABLE TYPE="nature">
	<NAME>WaterLeakWarning</NAME>
	<OUTCOME>T</OUTCOME>
	<OUTCOME>F</OUTCOME>
	<PROPERTY>position = (7308.10791015625, 5360.66259765625)</PROPERTY>
</VARIABLE>

<VARIABLE TYPE="nature">
	<NAME>IcyWeather</NAME>
	<OUTCOME>T</OUTCOME>
	<OUTCOME>F</OUTCOME>
	<PROPERTY>position = (7431.90576171875, 5178.62451171875)</PROPERTY>
</VARIABLE>

<VARIABLE TYPE="nature">
	<NAME>PumpFailure</NAME>
	<OUTCOME>T</OUTCOME>
	<OUTCOME>F</OUTCOME>
	<PROPERTY>position = (6955.0947265625, 5252.76318359375)</PROPERTY>
</VARIABLE>

<VARIABLE TYPE="nature">
	<NAME>PumpFailureWarning</NAME>
	<OUTCOME>T</OUTCOME>
	<OUTCOME>F</OUTCOME>
	<PROPERTY>position = (6916.30126953125, 5316.2685546875)</PROPERTY>
</VARIABLE>

<VARIABLE TYPE="nature">
	<NAME>Meltdown</NAME>
	<OUTCOME>T</OUTCOME>
	<OUTCOME>F</OUTCOME>
	<PROPERTY>position = (7114.0869140625, 5559.37548828125)</PROPERTY>
</VARIABLE>

<VARIABLE TYPE="nature">
	<NAME>Battery</NAME>
	<OUTCOME>T</OUTCOME>
	<OUTCOME>F</OUTCOME>
	<PROPERTY>position = (7524.5166015625, 5248.1650390625)</PROPERTY>
</VARIABLE>

<VARIABLE TYPE="nature">
	<NAME>Radio</NAME>
	<OUTCOME>T</OUTCOME>
	<OUTCOME>F</OUTCOME>
	<PROPERTY>position = (7573.6982421875, 5343.63134765625)</PROPERTY>
</VARIABLE>

<VARIABLE TYPE="nature">
	<NAME>Ignition</NAME>
	<OUTCOME>T</OUTCOME>
	<OUTCOME>F</OUTCOME>
	<PROPERTY>position = (7468.73095703125, 5340.1953125)</PROPERTY>
</VARIABLE>

<VARIABLE TYPE="nature">
	<NAME>Gas</NAME>
	<OUTCOME>T</OUTCOME>
	<OUTCOME>F</OUTCOME>
	<PROPERTY>position = (7400.79931640625, 5340.919921875)</PROPERTY>
</VARIABLE>

<VARIABLE TYPE="nature">
	<NAME>Starts</NAME>
	<OUTCOME>T</OUTCOME>
	<OUTCOME>F</OUTCOME>
	<PROPERTY>position = (7394.10595703125, 5410.8076171875)</PROPERTY>
</VARIABLE>

<VARIABLE TYPE="nature">
	<NAME>Moves</NAME>
	<OUTCOME>T</OUTCOME>
	<OUTCOME>F</OUTCOME>
	<PROPERTY>position = (7334.56787109375, 5465.42578125)</PROPERTY>
</VARIABLE>

<VARIABLE TYPE="nature">
	<NAME>Survives</NAME>
	<OUTCOME>T</OUTCOME>
	<OUTCOME>F</OUTCOME>
	<PROPERTY>position = (7260.15625, 5530.98681640625)</PROPERTY>
</VARIABLE>

<VARIABLE TYPE="nature">
	<NAME>Bicycle</NAME>
	<OUTCOME>T</OUTCOME>
	<OUTCOME>F</OUTCOME>
	<PROPERTY>position = (7256.55224609375, 5401.951171875)</PROPERTY>
</VARIABLE>

<VARIABLE TYPE="nature">
	<NAME>Sleep</NAME>
	<OUTCOME>T</OUTCOME>
	<OUTCOME>F</OUTCOME>
	<PROPERTY>position = (7115.44482421875, 5335.64599609375)</PROPERTY>
</VARIABLE>

<VARIABLE TYPE="nature">
	<NAME>Warning</NAME>
	<OUTCOME>T</OUTCOME>
	<OUTCOME>F</OUTCOME>
	<PROPERTY>position = (7109.05810546875, 5253.53466796875)</PROPERTY>
</VARIABLE>

<VARIABLE TYPE="nature">
	<NAME>Fix</NAME>
	<OUTCOME>T</OUTCOME>
	<OUTCOME>F</OUTCOME>
	<PROPERTY>position = (7110.88330078125, 5446.9541015625)</PROPERTY>
</VARIABLE>

<VARIABLE TYPE="nature">
	<NAME>Mr. H.S. Survives</NAME>
	<OUTCOME>T</OUTCOME>
	<OUTCOME>F</OUTCOME>
	<PROPERTY>position = (6942.09619140625, 5535.453125)</PROPERTY>
</VARIABLE>

<VARIABLE TYPE="nature">
	<NAME>FI</NAME>
	<OUTCOME>T</OUTCOME>
	<OUTCOME>F</OUTCOME>
	<PROPERTY>position = (7077.12548828125, 5392.212890625)</PROPERTY>
</VARIABLE>

<DEFINITION>
	<FOR>WaterLeak</FOR>
	<GIVEN>IcyWeather</GIVEN>
	<TABLE>0.2 0.8 0.1 0.9</TABLE>
</DEFINITION>

<DEFINITION>
	<FOR>WaterLeakWarning</FOR>
	<GIVEN>WaterLeak</GIVEN>
	<TABLE>0.9 0.1 0.05 0.95</TABLE>
</DEFINITION>

<DEFINITION>
	<FOR>IcyWeather</FOR>
	<TABLE>0.05 0.95</TABLE>
</DEFINITION>

<DEFINITION>
	<FOR>PumpFailure</FOR>
	<TABLE>0.1 0.9</TABLE>
</DEFINITION>

<DEFINITION>
	<FOR>PumpFailureWarning</FOR>
	<GIVEN>PumpFailure</GIVEN>
	<TABLE>0.9 0.1 0.05 0.95</TABLE>
</DEFINITION>

<DEFINITION>
	<FOR>Meltdown</FOR>
	<GIVEN>WaterLeak</GIVEN>
	<GIVEN>PumpFailure</GIVEN>
	<GIVEN>Fix</GIVEN>
	<TABLE>0.1 0.9 0.1 0.9 0.05 0.95 0.05 0.95 0.075 0.925 0.075 0.925 5.0E-4 0.9995 5.0E-4 0.9995</TABLE>
</DEFINITION>

<DEFINITION>
	<FOR>Battery</FOR>
	<GIVEN>IcyWeather</GIVEN>
	<TABLE>0.8 0.2 0.95 0.05</TABLE>
</DEFINITION>

<DEFINITION>
	<FOR>Radio</FOR>
	<GIVEN>Battery</GIVEN>
	<TABLE>0.95 0.05 0.0 1.0</TABLE>
</DEFINITION>

<DEFINITION>
	<FOR>Ignition</FOR>
	<GIVEN>Battery</GIVEN>
	<TABLE>0.95 0.05 0.0 1.0</TABLE>
</DEFINITION>

<DEFINITION>
	<FOR>Gas</FOR>
	<TABLE>0.95 0.05</TABLE>
</DEFINITION>

<DEFINITION>
	<FOR>Starts</FOR>
	<GIVEN>Ignition</GIVEN>
	<GIVEN>Gas</GIVEN>
	<TABLE>0.95 0.05 0.0 1.0 0.0 1.0 0.0 1.0</TABLE>
</DEFINITION>

<DEFINITION>
	<FOR>Moves</FOR>
	<GIVEN>Starts</GIVEN>
	<TABLE>0.95 0.05 0.0 1.0</TABLE>
</DEFINITION>

<DEFINITION>
	<FOR>Survives</FOR>
	<GIVEN>Meltdown</GIVEN>
	<GIVEN>Moves</GIVEN>
	<GIVEN>Bicycle</GIVEN>
	<TABLE>0.9 0.1 0.8 0.2 0.6 0.4 0.0 1.0 1.0 0.0 1.0 0.0 1.0 0.0 1.0 0.0</TABLE>
</DEFINITION>

<DEFINITION>
	<FOR>Bicycle</FOR>
	<TABLE>0.9 0.1</TABLE>
</DEFINITION>

<DEFINITION>
	<FOR>Sleep</FOR>
	<GIVEN>Warning</GIVEN>
	<TABLE>0.1 0.9 0.5 0.5</TABLE>
</DEFINITION>

<DEFINITION>
	<FOR>Warning</FOR>
	<GIVEN>WaterLeakWarning</GIVEN>
	<GIVEN>PumpFailureWarning</GIVEN>
	<TABLE>1.0 0.0 1.0 0.0 1.0 0.0 1.0 0.0</TABLE>
</DEFINITION>

<DEFINITION>
	<FOR>Fix</FOR>
	<GIVEN>FI</GIVEN>
	<TABLE>0.0 1.0 0.8 0.2</TABLE>
</DEFINITION>

<DEFINITION>
	<FOR>Mr. H.S. Survives</FOR>
	<GIVEN>Meltdown</GIVEN>
	<GIVEN>Moves</GIVEN>
	<GIVEN>FI</GIVEN>
	<TABLE>0.8 0.2 0.0 1.0 0.0 1.0 0.0 1.0 1.0 0.0 1.0 0.0 1.0 0.0 1.0 0.0</TABLE>
</DEFINITION>

<DEFINITION>
	<FOR>FI</FOR>
	<GIVEN>Sleep</GIVEN>
	<TABLE>0.0 1.0 0.3 0.7</TABLE>
</DEFINITION>
</NETWORK>
</BIF>
